<?xml version="1.0"?>
<opencv_storage>
<cascade>
  <stageType>BOOST</stageType>
  <featureType>LBP</featureType>
  <height>24</height>
  <width>24</width>
  <stageParams>
    <boostType>GAB</boostType>
    <minHitRate>9.9900001287460327e-01</minHitRate>
    <maxFalseAlarm>5.0000000000000000e-01</maxFalseAlarm>
    <weightTrimRate>9.4999999999999996e-01</weightTrimRate>
    <maxDepth>1</maxDepth>
    <maxWeakCount>100</maxWeakCount></stageParams>
  <featureParams>
    <maxCatCount>256</maxCatCount>
    <featSize>1</featSize></featureParams>
  <stageNum>14</stageNum>
  <stages>
    <!-- stage 0 -->
    <_>
      <maxWeakCount>8</maxWeakCount>
      <stageThreshold>-2.5648396015167236e+00</stageThreshold>
      <weakClassifiers>
        <_>
          <internalNodes>
            0 -1 2 -136577538 -2124289 1426096265 -545390593 -72630273
            -2100242 -15090689 -8193</internalNodes>
          <leafValues>
            -9.0312325954437256e-01 3.6597426980733871e-02</leafValues></_>
        <_>
          <internalNodes>
            0 -1 36 -573187368 -107348008 -708738685 2147294615
            -582173494 -77935956 -215433297 1598947263</internalNodes>
          <leafValues>
            -7.6156705617904663e-01 2.0969718694686890e-01</leafValues></_>
        <_>
          <internalNodes>
            0 -1 21 -234846016 454561728 453778312 939460568 -688464193
            -1656045640 -138425921 1509817339</internalNodes>
          <leafValues>
            -7.1949237585067749e-01 2.9908376932144165e-01</leafValues></_>
        <_>
          <internalNodes>
            0 -1 75 -188424968 1976695032 -2004877250 -302646436
            2093521082 -41554996 1992751870 356849534</internalNodes>
          <leafValues>
            -7.1553665399551392e-01 3.4138572216033936e-01</leafValues></_>
        <_>
          <internalNodes>
            0 -1 88 -321220224 -1797527049 -1081197432 -136316973
            2005730828 -552363028 993992350 2004344815</internalNodes>
          <leafValues>
            -6.4529800415039062e-01 3.2068020105361938e-01</leafValues></_>
        <_>
          <internalNodes>
            0 -1 1 -381038666 -1027026226 1414854942 1561983470
            -69207308 -597915954 -141689889 -14745606</internalNodes>
          <leafValues>
            -4.7622692584991455e-01 4.5498374104499817e-01</leafValues></_>
        <_>
          <internalNodes>
            0 -1 17 1548909595 -111241955 -64947588 -609085602
            1473729145 2121476221 997224284 -214597825</internalNodes>
          <leafValues>
            -5.3935223817825317e-01 4.0259331464767456e-01</leafValues></_>
        <_>
          <internalNodes>
            0 -1 37 1977806480 1840832400 -2115682264 2113264632
            1502919244 -716135497 -1400575973 99425274</internalNodes>
          <leafValues>
            -6.6017031669616699e-01 2.8783315420150757e-01</leafValues></_></weakClassifiers></_>
    <!-- stage 1 -->
    <_>
      <maxWeakCount>8</maxWeakCount>
      <stageThreshold>-2.3943092823028564e+00</stageThreshold>
      <weakClassifiers>
        <_>
          <internalNodes>
            0 -1 121 -2097281 -1 -1 -33 -185 -4194565 -1048577 -1</internalNodes>
          <leafValues>
            -8.7723618745803833e-01 -1.8726591020822525e-02</leafValues></_>
        <_>
          <internalNodes>
            0 -1 23 1393074376 -1147555073 1430296239 536729503
            2075808511 -73597954 2070559483 -1025</internalNodes>
          <leafValues>
            -7.7121639251708984e-01 1.6356383264064789e-01</leafValues></_>
        <_>
          <internalNodes>
            0 -1 93 1803026399 -1426147329 -1494290673 -993067010
            1843887989 -67110916 -2859180 -1259013148</internalNodes>
          <leafValues>
            -6.8409669399261475e-01 2.9127028584480286e-01</leafValues></_>
        <_>
          <internalNodes>
            0 -1 6 1325297519 783216234 -285311361 -1099104286 -106513
            1879048191 -41988227 -428408841</internalNodes>
          <leafValues>
            -5.9679991006851196e-01 3.5635712742805481e-01</leafValues></_>
        <_>
          <internalNodes>
            0 -1 114 70368703 216593396 -269518881 -1367801860 532475389
            -301989889 939442173 -269566724</internalNodes>
          <leafValues>
            -5.0283771753311157e-01 4.2359831929206848e-01</leafValues></_>
        <_>
          <internalNodes>
            0 -1 58 -716121910 2031218156 -180303166 1073209234
            -717219678 1465777112 -458321986 905256959</internalNodes>
          <leafValues>
            -6.2154930830001831e-01 3.3418890833854675e-01</leafValues></_>
        <_>
          <internalNodes>
            0 -1 85 1783906291 733405177 -51450585 -328401077 2144431989
            -16778508 -134390458 -318898575</internalNodes>
          <leafValues>
            -5.7717841863632202e-01 3.6917132139205933e-01</leafValues></_>
        <_>
          <internalNodes>
            0 -1 48 1064779742 1389821652 -4816914 -1075085988
            1490609620 -547554316 -277905858 1163230842</internalNodes>
          <leafValues>
            -6.1581653356552124e-01 3.3709868788719177e-01</leafValues></_></weakClassifiers></_>
    <!-- stage 2 -->
    <_>
      <maxWeakCount>7</maxWeakCount>
      <stageThreshold>-2.6229474544525146e+00</stageThreshold>
      <weakClassifiers>
        <_>
          <internalNodes>
            0 -1 126 -1 -67110945 -1025 -1 -185 -71309077 -1033 -1029</internalNodes>
          <leafValues>
            -8.6605077981948853e-01 7.5409837067127228e-02</leafValues></_>
        <_>
          <internalNodes>
            0 -1 109 -1342501801 -8917505 -8833 -26220553 -16777921
            -262689 -16777389 -17834249</internalNodes>
          <leafValues>
            -6.7074453830718994e-01 2.3214936256408691e-01</leafValues></_>
        <_>
          <internalNodes>
            0 -1 77 20832117 1069219747 1064818653 -1359151338
            1828521333 -268435457 -17011868 -51052684</internalNodes>
          <leafValues>
            -6.6299712657928467e-01 3.1943169236183167e-01</leafValues></_>
        <_>
          <internalNodes>
            0 -1 84 -728121216 -1523192911 -1078014268 -1212428289
            383014902 -539330594 934219519 2138013563</internalNodes>
          <leafValues>
            -6.6930508613586426e-01 3.2628330588340759e-01</leafValues></_>
        <_>
          <internalNodes>
            0 -1 29 1581084191 1862156159 -83984452 1862205374
            -149009401 1610560383 2146729492 -26149004</internalNodes>
          <leafValues>
            -6.4920556545257568e-01 3.7881961464881897e-01</leafValues></_>
        <_>
          <internalNodes>
            0 -1 79 1023391839 645785463 -3162185 -1359293698 1023166836
            -100720641 -196748 -51085328</internalNodes>
          <leafValues>
            -6.1902981996536255e-01 3.5461178421974182e-01</leafValues></_>
        <_>
          <internalNodes>
            0 -1 91 1626732415 803798495 -1112604755 -286327317
            2145213911 2147479007 -270139828 -285409452</internalNodes>
          <leafValues>
            -4.9606859683990479e-01 4.2557764053344727e-01</leafValues></_></weakClassifiers></_>
    <!-- stage 3 -->
    <_>
      <maxWeakCount>9</maxWeakCount>
      <stageThreshold>-2.1706390380859375e+00</stageThreshold>
      <weakClassifiers>
        <_>
          <internalNodes>
            0 -1 83 -34078889 -3585 -2121729 -8193 -67372033 -513 -513
            -17</internalNodes>
          <leafValues>
            -8.5085374116897583e-01 1.6425120830535889e-01</leafValues></_>
        <_>
          <internalNodes>
            0 -1 12 -53023088 -143264835 -987242993 1600507744
            -637862929 -817062452 1761410782 1070542734</internalNodes>
          <leafValues>
            -7.1755343675613403e-01 7.6446704566478729e-02</leafValues></_>
        <_>
          <internalNodes>
            0 -1 40 -2585352 -56640842 -1535112063 -1783521495
            -1403900966 1599732735 -440648513 1138606075</internalNodes>
          <leafValues>
            -6.8767338991165161e-01 2.8164079785346985e-01</leafValues></_>
        <_>
          <internalNodes>
            0 -1 18 -425529728 864677703 -135866714 939212353 -537510162
            -1115684869 939490031 2013241307</internalNodes>
          <leafValues>
            -5.7306921482086182e-01 3.1065878272056580e-01</leafValues></_>
        <_>
          <internalNodes>
            0 -1 30 1534293887 1002364783 -1143047554 -1094830209
            2138338863 2003899767 -136544428 -11338634</internalNodes>
          <leafValues>
            -4.9966901540756226e-01 3.8119375705718994e-01</leafValues></_>
        <_>
          <internalNodes>
            0 -1 119 859803647 62698424 1073117177 720304100 -1103249411
            -2080638977 763313653 -1459636747</internalNodes>
          <leafValues>
            -5.1178079843521118e-01 3.4661337733268738e-01</leafValues></_>
        <_>
          <internalNodes>
            0 -1 92 525182975 719600318 -503550133 -319226925 1073700208
            -2124 -690094272 -1426784395</internalNodes>
          <leafValues>
            -5.7532072067260742e-01 3.0442082881927490e-01</leafValues></_>
        <_>
          <internalNodes>
            0 -1 113 1192467744 -44240544 -1680625920 -407120204
            1507188168 2033674717 698870638 670531430</internalNodes>
          <leafValues>
            -5.9954077005386353e-01 2.9905709624290466e-01</leafValues></_>
        <_>
          <internalNodes>
            0 -1 51 2109057198 -1198330144 -240792692 -504426172
            2111010214 1958846640 -1515192354 1469406094</internalNodes>
          <leafValues>
            -6.1059635877609253e-01 2.7248233556747437e-01</leafValues></_></weakClassifiers></_>
    <!-- stage 4 -->
    <_>
      <maxWeakCount>9</maxWeakCount>
      <stageThreshold>-2.2539541721343994e+00</stageThreshold>
      <weakClassifiers>
        <_>
          <internalNodes>
            0 -1 60 -1363544645 -4456461 -1086717985 -39339025
            -876675073 -68288801 -1955610693 -1025</internalNodes>
          <leafValues>
            -8.7980449199676514e-01 -2.5044092535972595e-01</leafValues></_>
        <_>
          <internalNodes>
            0 -1 19 -662307410 -104211490 1571414324 1573740029
            -16778242 -564855890 -1882324993 -538968065</internalNodes>
          <leafValues>
            -6.3659316301345825e-01 2.1674697101116180e-01</leafValues></_>
        <_>
          <internalNodes>
            0 -1 106 -288948876 -29829744 -1952768368 -1883976272
            427228668 511638335 -1711392006 925232627</internalNodes>
          <leafValues>
            -5.7873678207397461e-01 2.6381734013557434e-01</leafValues></_>
        <_>
          <internalNodes>
            0 -1 123 267386659 1048554429 131960230 -1409588237
            -67666172 -1073746946 -10490684 -990511177</internalNodes>
          <leafValues>
            -5.2602291107177734e-01 3.2199203968048096e-01</leafValues></_>
        <_>
          <internalNodes>
            0 -1 11 -1392334764 -1612528348 -804994529 1642940172
            2107021500 1534638974 -185677954 98078606</internalNodes>
          <leafValues>
            -6.0697615146636963e-01 3.0339974164962769e-01</leafValues></_>
        <_>
          <internalNodes>
            0 -1 47 1509759999 -657164865 219594996 2146925886
            1557559804 -684397834 -89723910 2134851543</internalNodes>
          <leafValues>
            -4.1731834411621094e-01 4.2465522885322571e-01</leafValues></_>
        <_>
          <internalNodes>
            0 -1 22 1392549890 184088814 1573129948 523192257 -83084022
            -851838211 1944588015 1272819637</internalNodes>
          <leafValues>
            -7.4889928102493286e-01 2.2411224246025085e-01</leafValues></_>
        <_>
          <internalNodes>
            0 -1 66 -305141546 -851059868 -141245580 1844371328
            1880947196 -120219254 -286754818 931474366</internalNodes>
          <leafValues>
            -5.3831321001052856e-01 2.9747319221496582e-01</leafValues></_>
        <_>
          <internalNodes>
            0 -1 62 1689379554 -134350886 234898780 -941766434 -3869296
            -1248208092 925432818 1867374590</internalNodes>
          <leafValues>
            -6.1423403024673462e-01 2.5602671504020691e-01</leafValues></_></weakClassifiers></_>
    <!-- stage 5 -->
    <_>
      <maxWeakCount>9</maxWeakCount>
      <stageThreshold>-2.0060856342315674e+00</stageThreshold>
      <weakClassifiers>
        <_>
          <internalNodes>
            0 -1 100 -17087369 -1 -43385345 -545 -17039873 -2115
            -55575313 -16778517</internalNodes>
          <leafValues>
            -8.7701678276062012e-01 -3.3857029676437378e-01</leafValues></_>
        <_>
          <internalNodes>
            0 -1 129 -201326609 -1279541249 -1753755649 -754976833
            -68949433 -1108869273 -19398923 -6145</internalNodes>
          <leafValues>
            -5.6032919883728027e-01 2.5504451990127563e-01</leafValues></_>
        <_>
          <internalNodes>
            0 -1 67 -755188487 855769019 -269030107 -5935245 1432895742
            2147303162 -1392542165 1022851062</internalNodes>
          <leafValues>
            -4.7614234685897827e-01 3.0932620167732239e-01</leafValues></_>
        <_>
          <internalNodes>
            0 -1 10 2132852336 2120492714 -125120852 -1217552498
            -572625409 1601765310 -26323585 883937230</internalNodes>
          <leafValues>
            -5.3964293003082275e-01 2.8531184792518616e-01</leafValues></_>
        <_>
          <internalNodes>
            0 -1 53 2146430293 651666427 -554500793 -1930498522
            -386261178 -16832925 -24187067 -193921178</internalNodes>
          <leafValues>
            -5.3151440620422363e-01 3.1250068545341492e-01</leafValues></_>
        <_>
          <internalNodes>
            0 -1 115 264109049 49261944 -35668108 -1343291576
            -1610815043 -2109811851 536745468 -838861606</internalNodes>
          <leafValues>
            -4.4724652171134949e-01 3.4617745876312256e-01</leafValues></_>
        <_>
          <internalNodes>
            0 -1 76 534540161 981003772 -543725008 -319358223 1977634260
            2147215870 -306422404 -1258954761</internalNodes>
          <leafValues>
            -5.5732345581054688e-01 2.8887903690338135e-01</leafValues></_>
        <_>
          <internalNodes>
            0 -1 55 1564656032 -1623463388 -200286779 1740618025
            2136933664 1600909821 656346794 1869606911</internalNodes>
          <leafValues>
            -6.6793024539947510e-01 2.3163121938705444e-01</leafValues></_>
        <_>
          <internalNodes>
            0 -1 60 -1901578237 -1532240366 -1349894261 1813883554
            1237219002 -85134861 -1032470735 -657072670</internalNodes>
          <leafValues>
            -5.9680205583572388e-01 2.4775071442127228e-01</leafValues></_></weakClassifiers></_>
    <!-- stage 6 -->
    <_>
      <maxWeakCount>9</maxWeakCount>
      <stageThreshold>-2.1625857353210449e+00</stageThreshold>
      <weakClassifiers>
        <_>
          <internalNodes>
            0 -1 20 -322633729 -8707 -2498561 -8713 -1915028481 -1029
            -4456449 -1065013</internalNodes>
          <leafValues>
            -8.5028630495071411e-01 -6.9679848849773407e-02</leafValues></_>
        <_>
          <internalNodes>
            0 -1 74 -841953027 -1189718258 -1209627731 -6586591
            2111556792 1868032766 -457249030 929558315</internalNodes>
          <leafValues>
            -6.4245319366455078e-01 6.5839298069477081e-02</leafValues></_>
        <_>
          <internalNodes>
            0 -1 49 1606358203 -545370131 1865940703 1999649279
            469527636 -67469954 -335627404 1832025450</internalNodes>
          <leafValues>
            -5.6874400377273560e-01 2.2939163446426392e-01</leafValues></_>
        <_>
          <internalNodes>
            0 -1 14 -491585604 1292660712 -1025053706 -1074849232
            -547697708 1560243134 -27390020 1174097886</internalNodes>
          <leafValues>
            -5.1216077804565430e-01 2.8345814347267151e-01</leafValues></_>
        <_>
          <internalNodes>
            0 -1 110 -554899200 189716411 -726869400 833347531
            2121997316 2113662207 1912473164 897972095</internalNodes>
          <leafValues>
            -7.0072406530380249e-01 2.2383081912994385e-01</leafValues></_>
        <_>
          <internalNodes>
            0 -1 111 1163235259 976059303 -324236050 -1926439038
            -1090632356 -2100483 -16974242 -1396381708</internalNodes>
          <leafValues>
            -4.7293370962142944e-01 3.0270859599113464e-01</leafValues></_>
        <_>
          <internalNodes>
            0 -1 41 -183633886 -1207393539 822519968 2142231313
            -129086166 1549069970 -1391472945 838847403</internalNodes>
          <leafValues>
            -4.9028080701828003e-01 3.0215612053871155e-01</leafValues></_>
        <_>
          <internalNodes>
            0 -1 28 2025220668 241752446 212002004 -306192906 -537624747
            1585212350 -1176830262 1207135078</internalNodes>
          <leafValues>
            -6.1967843770980835e-01 2.3386870324611664e-01</leafValues></_>
        <_>
          <internalNodes>
            0 -1 44 -370811768 -468546595 -503494849 1825553066
            -879036012 -29051044 -141770754 1062744584</internalNodes>
          <leafValues>
            -5.8472055196762085e-01 2.5055575370788574e-01</leafValues></_></weakClassifiers></_>
    <!-- stage 7 -->
    <_>
      <maxWeakCount>11</maxWeakCount>
      <stageThreshold>-2.7859649658203125e+00</stageThreshold>
      <weakClassifiers>
        <_>
          <internalNodes>
            0 -1 54 -1078198337 -4203785 -548274255 -1049105 -4784149
            -1181525 -4194309 -577</internalNodes>
          <leafValues>
            -8.6384171247482300e-01 -2.0525059103965759e-01</leafValues></_>
        <_>
          <internalNodes>
            0 -1 59 -1133218817 1385773872 1373302512 -1413523800
            473749972 -537084930 -17949094 800537467</internalNodes>
          <leafValues>
            -6.5990322828292847e-01 3.7955448031425476e-02</leafValues></_>
        <_>
          <internalNodes>
            0 -1 102 1950385826 -573046874 -1568617140 -42638499
            -1392118390 -1118851112 925170527 1325882846</internalNodes>
          <leafValues>
            -5.4074180126190186e-01 2.5820249319076538e-01</leafValues></_>
        <_>
          <internalNodes>
            0 -1 25 1852337342 1065549618 -589402578 -840500382
            -825471266 536803263 -98802 889091958</internalNodes>
          <leafValues>
            -5.6644487380981445e-01 2.5757876038551331e-01</leafValues></_>
        <_>
          <internalNodes>
            0 -1 39 2048513158 -425949620 -1928520700 666880857
            -16912026 -17524538 -1364371522 935156703</internalNodes>
          <leafValues>
            -5.1449197530746460e-01 2.9832205176353455e-01</leafValues></_>
        <_>
          <internalNodes>
            0 -1 118 -67172329 -12641297 1221913579 1602214877
            -1361682701 -1374074692 -1171538281 -635397124</internalNodes>
          <leafValues>
            -4.0517026185989380e-01 3.8446569442749023e-01</leafValues></_>
        <_>
          <internalNodes>
            0 -1 69 1960423219 66648562 -1479718354 -1476984986
            1423721597 1876815610 -51548804 1962109619</internalNodes>
          <leafValues>
            -5.2059805393218994e-01 2.9687178134918213e-01</leafValues></_>
        <_>
          <internalNodes>
            0 -1 57 -615988983 -1641034803 -573301759 -1109102008
            -543274553 1073083838 -1159594532 618789690</internalNodes>
          <leafValues>
            -4.7983995079994202e-01 3.0357041954994202e-01</leafValues></_>
        <_>
          <internalNodes>
            0 -1 8 -379720977 -386992823 1674671607 -665700492
            -496067394 -5565137 2145289990 1960837111</internalNodes>
          <leafValues>
            -4.4547879695892334e-01 3.3209931850433350e-01</leafValues></_>
        <_>
          <internalNodes>
            0 -1 72 -154892794 -588710938 335838928 1840733145
            -690621024 -707413728 927399871 1599442930</internalNodes>
          <leafValues>
            -5.9891611337661743e-01 2.4873317778110504e-01</leafValues></_>
        <_>
          <internalNodes>
            0 -1 117 -1751527725 775421924 -547950686 -1366294548
            1796430797 -1082405 -51581224 -856621451</internalNodes>
          <leafValues>
            -4.4378992915153503e-01 3.3970308303833008e-01</leafValues></_></weakClassifiers></_>
    <!-- stage 8 -->
    <_>
      <maxWeakCount>10</maxWeakCount>
      <stageThreshold>-2.1170110702514648e+00</stageThreshold>
      <weakClassifiers>
        <_>
          <internalNodes>
            0 -1 130 -1 -201326657 -69338633 -537922565 -2049 -21260289
            -17825801 -1025</internalNodes>
          <leafValues>
            -8.5285758972167969e-01 -1.5905511379241943e-01</leafValues></_>
        <_>
          <internalNodes>
            0 -1 81 -1406620141 -536879521 -142606339 -34305305
            -1108492565 -1377857 -13107393 -335086733</internalNodes>
          <leafValues>
            -6.1253130435943604e-01 1.0183922201395035e-01</leafValues></_>
        <_>
          <internalNodes>
            0 -1 112 1853320727 641728420 -28517271 -1496514636
            -327721545 1073082349 1828551797 -285868044</internalNodes>
          <leafValues>
            -5.1944506168365479e-01 2.4660843610763550e-01</leafValues></_>
        <_>
          <internalNodes>
            0 -1 3 1363436184 -1709470773 353634956 265281478 -612419545
            -83460 2066575224 1576337260</internalNodes>
          <leafValues>
            -7.0472019910812378e-01 1.8838885426521301e-01</leafValues></_>
        <_>
          <internalNodes>
            0 -1 124 851291647 -2042042461 1298086864 90193918 -27117571
            73266155 1844729200 1308423928</internalNodes>
          <leafValues>
            -5.5610257387161255e-01 2.5815436244010925e-01</leafValues></_>
        <_>
          <internalNodes>
            0 -1 104 1356714463 1022635927 -1562923354 -1394020979
            1878596825 -4402 -85655948 -319522845</internalNodes>
          <leafValues>
            -4.1124826669692993e-01 3.3740633726119995e-01</leafValues></_>
        <_>
          <internalNodes>
            0 -1 107 1786751861 85261232 -2163128 -403767828 1063157117
            1073610751 -1895858690 -1330643981</internalNodes>
          <leafValues>
            -4.1195279359817505e-01 3.4622189402580261e-01</leafValues></_>
        <_>
          <internalNodes>
            0 -1 7 -1046418784 -1900223524 67374364 -1560424786
            -123405811 -34276906 -275316952 234680058</internalNodes>
          <leafValues>
            -6.9981640577316284e-01 2.0742253959178925e-01</leafValues></_>
        <_>
          <internalNodes>
            0 -1 43 -556627816 1028862780 -188929527 904093048
            -578874902 1870070154 614727850 2136987512</internalNodes>
          <leafValues>
            -5.7656663656234741e-01 2.2918422520160675e-01</leafValues></_>
        <_>
          <internalNodes>
            0 -1 105 921009693 915301270 1750955430 -307964968
            -570468388 -72365113 -287548315 -1394313227</internalNodes>
          <leafValues>
            -5.7441753149032593e-01 2.3974633216857910e-01</leafValues></_></weakClassifiers></_>
    <!-- stage 9 -->
    <_>
      <maxWeakCount>11</maxWeakCount>
      <stageThreshold>-2.0918817520141602e+00</stageThreshold>
      <weakClassifiers>
        <_>
          <internalNodes>
            0 -1 116 -536872097 -33562625 -1107296785 -2097153 -3145809
            -1025 -83890177 -1</internalNodes>
          <leafValues>
            -8.5396355390548706e-01 -2.0857143402099609e-01</leafValues></_>
        <_>
          <internalNodes>
            0 -1 9 -269490449 -1896944726 -1384990169 -537086214
            -34611266 -391315578 -2918289 -137887865</internalNodes>
          <leafValues>
            -5.6400698423385620e-01 1.6172681748867035e-01</leafValues></_>
        <_>
          <internalNodes>
            0 -1 42 -575497040 -1615884629 -1530762235 -1076810247
            -1617491290 1595652347 -1074514762 2006678314</internalNodes>
          <leafValues>
            -5.4502534866333008e-01 2.2478911280632019e-01</leafValues></_>
        <_>
          <internalNodes>
            0 -1 45 -1931267209 515439408 -300093784 669908912
            1610513652 2143190015 -1154214900 1928813399</internalNodes>
          <leafValues>
            -4.6423098444938660e-01 2.7503886818885803e-01</leafValues></_>
        <_>
          <internalNodes>
            0 -1 95 458533877 1547213052 1951328212 -1397047300
            376966740 -17171459 729503612 754726519</internalNodes>
          <leafValues>
            -5.5035519599914551e-01 2.5741460919380188e-01</leafValues></_>
        <_>
          <internalNodes>
            0 -1 86 1608179199 -1079324784 -863092533 -5451854
            -122860828 2080226183 -135905670 720338807</internalNodes>
          <leafValues>
            -3.9961722493171692e-01 3.1069552898406982e-01</leafValues></_>
        <_>
          <internalNodes>
            0 -1 15 -155198217 -606346562 -23314419 -261890594
            1073354326 -1342535519 289858203 1987311938</internalNodes>
          <leafValues>
            -3.6112990975379944e-01 3.6116430163383484e-01</leafValues></_>
        <_>
          <internalNodes>
            0 -1 26 -166007176 1992557382 -441390323 -537436671
            -37044314 -829641840 -119558406 64856058</internalNodes>
          <leafValues>
            -4.7423246502876282e-01 2.8626143932342529e-01</leafValues></_>
        <_>
          <internalNodes>
            0 -1 128 1937755207 -4766026 1688130468 -1880644940
            125777734 -82321813 -1627409871 1616128820</internalNodes>
          <leafValues>
            -5.3024458885192871e-01 2.5860407948493958e-01</leafValues></_>
        <_>
          <internalNodes>
            0 -1 90 1517990320 -1198530691 -1698791612 -424576316
            1525942724 2013153397 1709619178 1068489542</internalNodes>
          <leafValues>
            -5.5309480428695679e-01 2.3624779284000397e-01</leafValues></_>
        <_>
          <internalNodes>
            0 -1 32 -1025078528 -1634817106 -541593990 -151003514
            1979569918 -275533 1870559837 82175399</internalNodes>
          <leafValues>
            -5.1650851964950562e-01 2.5169587135314941e-01</leafValues></_></weakClassifiers></_>
    <!-- stage 10 -->
    <_>
      <maxWeakCount>10</maxWeakCount>
      <stageThreshold>-2.1392378807067871e+00</stageThreshold>
      <weakClassifiers>
        <_>
          <internalNodes>
            0 -1 100 -33860489 -657537 1430773759 -545268515 -263681
            -7235 -123339537 -83895573</internalNodes>
          <leafValues>
            -8.6986148357391357e-01 -4.0902256965637207e-01</leafValues></_>
        <_>
          <internalNodes>
            0 -1 50 -1962156101 -1711932760 2142526329 -42086427
            -1688507909 -1518380034 1868036251 -623905311</internalNodes>
          <leafValues>
            -5.9422975778579712e-01 7.8487329185009003e-02</leafValues></_>
        <_>
          <internalNodes>
            0 -1 68 1828571891 502530038 -526713300 -1344372762
            -520732580 1945094654 -88715948 1962241911</internalNodes>
          <leafValues>
            -5.4313439130783081e-01 2.1693602204322815e-01</leafValues></_>
        <_>
          <internalNodes>
            0 -1 46 615968272 -556957828 -2007800774 -303304952
            -1117991978 -606538314 -1377636353 1036874746</internalNodes>
          <leafValues>
            -4.5856112241744995e-01 2.8163793683052063e-01</leafValues></_>
        <_>
          <internalNodes>
            0 -1 61 -733918046 -1742959945 1037459188 -1109428690
            -11188843 2013249275 -1275691174 1055817684</internalNodes>
          <leafValues>
            -5.3070080280303955e-01 2.8311285376548767e-01</leafValues></_>
        <_>
          <internalNodes>
            0 -1 16 -17965185 2107604479 2124332799 -1892533253
            -210275783 -32018131 1870102384 -82576533</internalNodes>
          <leafValues>
            -3.6757937073707581e-01 3.6007794737815857e-01</leafValues></_>
        <_>
          <internalNodes>
            0 -1 0 845384362 -1630824760 534829886 1173209038 -572557549
            -555971592 -425402369 1571815294</internalNodes>
          <leafValues>
            -5.0177758932113647e-01 2.7489012479782104e-01</leafValues></_>
        <_>
          <internalNodes>
            0 -1 125 1595886687 -1096066325 -1857126483 -1987061068
            -60098851 936372606 -555811014 -365169540</internalNodes>
          <leafValues>
            -3.9306357502937317e-01 3.6407643556594849e-01</leafValues></_>
        <_>
          <internalNodes>
            0 -1 97 878001631 -1125588061 -288695449 -436996393
            -839104308 -1078985909 -152445353 -17432713</internalNodes>
          <leafValues>
            -3.7561744451522827e-01 3.7032124400138855e-01</leafValues></_>
        <_>
          <internalNodes>
            0 -1 63 1556871357 -1947268949 698984503 -1408110862
            794124082 -17042742 2106159893 -791284763</internalNodes>
          <leafValues>
            -4.5436668395996094e-01 2.9106813669204712e-01</leafValues></_></weakClassifiers></_>
    <!-- stage 11 -->
    <_>
      <maxWeakCount>9</maxWeakCount>
      <stageThreshold>-1.9305133819580078e+00</stageThreshold>
      <weakClassifiers>
        <_>
          <internalNodes>
            0 -1 96 -794793 -44033 -663553 -2107171 -21 -6573829
            -356782081 -6579233</internalNodes>
          <leafValues>
            -8.5209476947784424e-01 -2.1929824352264404e-01</leafValues></_>
        <_>
          <internalNodes>
            0 -1 98 -981485667 1045994294 -277030974 -1650174074
            2094959068 2122314231 -16884002 900691191</internalNodes>
          <leafValues>
            -6.5598231554031372e-01 -1.0154301300644875e-02</leafValues></_>
        <_>
          <internalNodes>
            0 -1 33 547546240 624095163 -134582590 2011381713 -10784802
            1876868795 1018896095 1207926527</internalNodes>
          <leafValues>
            -6.3043189048767090e-01 1.6472323238849640e-01</leafValues></_>
        <_>
          <internalNodes>
            0 -1 73 1497710071 -1342704073 1198976777 -280595097
            -308457988 -1065233 -637642688 -17956875</internalNodes>
          <leafValues>
            -3.6030504107475281e-01 3.4273299574851990e-01</leafValues></_>
        <_>
          <internalNodes>
            0 -1 56 1551192053 -1079990551 -37106366 -327028784
            1593135087 -24121107 -118066857 1727297399</internalNodes>
          <leafValues>
            -3.6925059556961060e-01 3.4914836287498474e-01</leafValues></_>
        <_>
          <internalNodes>
            0 -1 122 2019397383 972478682 -28627008 799932382
            -1098995047 -277141124 -184775716 711119606</internalNodes>
          <leafValues>
            -4.0897029638290405e-01 3.0738097429275513e-01</leafValues></_>
        <_>
          <internalNodes>
            0 -1 127 -1015817291 77791884 1519738768 1573763963
            -1414005788 784731134 1067773940 142212093</internalNodes>
          <leafValues>
            -4.8842620849609375e-01 2.6467207074165344e-01</leafValues></_>
        <_>
          <internalNodes>
            0 -1 94 -1392641136 -1665222746 207511344 -33628424
            1192226784 -613090395 671055594 377487323</internalNodes>
          <leafValues>
            -4.6366360783576965e-01 2.6776540279388428e-01</leafValues></_>
        <_>
          <internalNodes>
            0 -1 78 1432713855 704017279 842406261 796408284 1601984572
            2075515903 -33921692 -1124827530</internalNodes>
          <leafValues>
            -5.1970416307449341e-01 2.5216305255889893e-01</leafValues></_></weakClassifiers></_>
    <!-- stage 12 -->
    <_>
      <maxWeakCount>12</maxWeakCount>
      <stageThreshold>-2.2937049865722656e+00</stageThreshold>
      <weakClassifiers>
        <_>
          <internalNodes>
            0 -1 100 -50641801 -9889 1563033055 -1833 -84018689 -269667
            -592707841 -16778517</internalNodes>
          <leafValues>
            -8.7543332576751709e-01 -4.2375168204307556e-01</leafValues></_>
        <_>
          <internalNodes>
            0 -1 13 1996481279 -1697713938 1588904031 -167838866
            -77086213 -67112950 -154186929 -8388745</internalNodes>
          <leafValues>
            -5.4472225904464722e-01 1.4466160535812378e-01</leafValues></_>
        <_>
          <internalNodes>
            0 -1 38 -289257452 1833432188 -93844228 939348832 -676017794
            1595734940 -63775506 1174347733</internalNodes>
          <leafValues>
            -5.3962457180023193e-01 1.8999999761581421e-01</leafValues></_>
        <_>
          <internalNodes>
            0 -1 27 502040023 2104365910 2104425430 -9404969 1985364350
            -14802605 -1153000610 2104768310</internalNodes>
          <leafValues>
            -5.1631844043731689e-01 2.2314667701721191e-01</leafValues></_>
        <_>
          <internalNodes>
            0 -1 89 1606734852 -1293354273 -1667585038 -1477004833
            2145343111 2147220181 819330300 -134218925</internalNodes>
          <leafValues>
            -3.9338317513465881e-01 3.2036653161048889e-01</leafValues></_>
        <_>
          <internalNodes>
            0 -1 87 1070882811 1039661519 -151066225 246370566
            1358590269 -1598051859 -570459328 -388695230</internalNodes>
          <leafValues>
            -4.7634607553482056e-01 2.4501810967922211e-01</leafValues></_>
        <_>
          <internalNodes>
            0 -1 82 -1991933301 -1333921558 -765142440 2006922199
            -643146476 -61276509 614321135 2134768639</internalNodes>
          <leafValues>
            -3.5632079839706421e-01 3.6187374591827393e-01</leafValues></_>
        <_>
          <internalNodes>
            0 -1 4 -87627778 -1149065750 -1362734536 962535182
            1590510580 855366495 1019870718 134204414</internalNodes>
          <leafValues>
            -4.8134455084800720e-01 2.7360725402832031e-01</leafValues></_>
        <_>
          <internalNodes>
            0 -1 103 1360099327 805292143 940424303 -293723949
            -388268796 -39580697 -1173767050 -1393169741</internalNodes>
          <leafValues>
            -4.4627583026885986e-01 2.8499102592468262e-01</leafValues></_>
        <_>
          <internalNodes>
            0 -1 5 1783492106 -1374787966 907680952 -139296910
            1876634367 -816578820 -152224954 -671140506</internalNodes>
          <leafValues>
            -4.7834384441375732e-01 2.6267027854919434e-01</leafValues></_>
        <_>
          <internalNodes>
            0 -1 31 -4236453 1436518165 1992254775 1996226454 -70643365
            -1086253001 1729325417 2064808304</internalNodes>
          <leafValues>
            -4.5653307437896729e-01 2.8366038203239441e-01</leafValues></_>
        <_>
          <internalNodes>
            0 -1 52 -174015819 -632056009 -844345814 -6821086
            -1383150089 1541011387 -321032562 2134707167</internalNodes>
          <leafValues>
            -3.7441760301589966e-01 3.4525376558303833e-01</leafValues></_></weakClassifiers></_>
    <!-- stage 13 -->
    <_>
      <maxWeakCount>12</maxWeakCount>
      <stageThreshold>-2.2021329402923584e+00</stageThreshold>
      <weakClassifiers>
        <_>
          <internalNodes>
            0 -1 101 -2359465 -527137 -542655233 -570961541 -547356961
            -4224267 -1448346673 -1077952613</internalNodes>
          <leafValues>
            -8.5782295465469360e-01 -3.0872482061386108e-01</leafValues></_>
        <_>
          <internalNodes>
            0 -1 108 -1149324389 227684788 -1785079873 -1143212552
            1039875061 1810798781 2098985721 -1078994568</internalNodes>
          <leafValues>
            -6.0000044107437134e-01 4.8376567661762238e-02</leafValues></_>
        <_>
          <internalNodes>
            0 -1 24 1377157026 -1702826480 -391319074 361586269
            -220808436 1388769726 -1364395050 234839038</internalNodes>
          <leafValues>
            -5.3121203184127808e-01 2.2259870171546936e-01</leafValues></_>
        <_>
          <internalNodes>
            0 -1 34 1954450074 -1972634466 830768157 -1381546038
            -622293094 -819208022 2146609915 1594882186</internalNodes>
          <leafValues>
            -4.5953059196472168e-01 2.7460834383964539e-01</leafValues></_>
        <_>
          <internalNodes>
            0 -1 70 1039544313 -322151528 -1273346672 -1375797618
            1569254484 -13304836 -90216630 488845562</internalNodes>
          <leafValues>
            -4.7265896201133728e-01 2.8048086166381836e-01</leafValues></_>
        <_>
          <internalNodes>
            0 -1 65 -18085544 1620201845 -445615487 -1515757632
            -1937093862 -295730115 -240343058 909077164</internalNodes>
          <leafValues>
            -5.4188007116317749e-01 2.2917833924293518e-01</leafValues></_>
        <_>
          <internalNodes>
            0 -1 64 940629136 513835692 -687301302 -20344928 1482426500
            2123145382 -324261746 617966371</internalNodes>
          <leafValues>
            -7.3306387662887573e-01 1.7647923529148102e-01</leafValues></_>
        <_>
          <internalNodes>
            0 -1 120 -293274091 88074238 -1244735211 802094399 -11863162
            -1075070513 -172441784 -230362182</internalNodes>
          <leafValues>
            -4.0113192796707153e-01 3.2492056488990784e-01</leafValues></_>
        <_>
          <internalNodes>
            0 -1 71 1116980450 -755372177 933285448 532577878 1393842470
            -1280204672 856603470 2113797656</internalNodes>
          <leafValues>
            -5.8102530241012573e-01 2.3195788264274597e-01</leafValues></_>
        <_>
          <internalNodes>
            0 -1 99 1602215865 796285005 -1344418515 1795048344
            2070897525 1385405113 -1684804860 -189289498</internalNodes>
          <leafValues>
            -4.9702292680740356e-01 2.6249861717224121e-01</leafValues></_>
        <_>
          <internalNodes>
            0 -1 80 -563119363 47186333 -132451493 -692126723 512362876
            -31618757 2139771442 -892183948</internalNodes>
          <leafValues>
            -4.9854817986488342e-01 2.6827234029769897e-01</leafValues></_>
        <_>
          <internalNodes>
            0 -1 35 1524332610 926475976 94703744 1207897690 -75173406
            -92495685 2055433982 2012532634</internalNodes>
          <leafValues>
            -5.8157902956008911e-01 2.1938551962375641e-01</leafValues></_></weakClassifiers></_></stages>
  <features>
    <_>
      <rect>
        0 0 5 6</rect></_>
    <_>
      <rect>
        0 0 5 8</rect></_>
    <_>
      <rect>
        0 1 8 5</rect></_>
    <_>
      <rect>
        0 1 8 6</rect></_>
    <_>
      <rect>
        0 2 4 4</rect></_>
    <_>
      <rect>
        0 4 2 2</rect></_>
    <_>
      <rect>
        0 6 2 2</rect></_>
    <_>
      <rect>
        0 6 6 6</rect></_>
    <_>
      <rect>
        0 7 1 1</rect></_>
    <_>
      <rect>
        0 7 1 2</rect></_>
    <_>
      <rect>
        0 7 5 4</rect></_>
    <_>
      <rect>
        0 7 6 4</rect></_>
    <_>
      <rect>
        0 8 8 4</rect></_>
    <_>
      <rect>
        0 9 1 2</rect></_>
    <_>
      <rect>
        0 10 4 4</rect></_>
    <_>
      <rect>
        0 15 1 1</rect></_>
    <_>
      <rect>
        0 18 3 2</rect></_>
    <_>
      <rect>
        0 18 4 2</rect></_>
    <_>
      <rect>
        1 0 4 4</rect></_>
    <_>
      <rect>
        1 0 4 8</rect></_>
    <_>
      <rect>
        1 0 5 1</rect></_>
    <_>
      <rect>
        1 0 5 5</rect></_>
    <_>
      <rect>
        1 0 6 5</rect></_>
    <_>
      <rect>
        1 0 7 6</rect></_>
    <_>
      <rect>
        1 3 4 6</rect></_>
    <_>
      <rect>
        1 5 3 3</rect></_>
    <_>
      <rect>
        1 9 7 4</rect></_>
    <_>
      <rect>
        1 13 1 3</rect></_>
    <_>
      <rect>
        1 14 5 3</rect></_>
    <_>
      <rect>
        1 15 2 2</rect></_>
    <_>
      <rect>
        1 17 2 2</rect></_>
    <_>
      <rect>
        1 21 2 1</rect></_>
    <_>
      <rect>
        2 0 3 2</rect></_>
    <_>
      <rect>
        2 0 5 3</rect></_>
    <_>
      <rect>
        2 0 7 4</rect></_>
    <_>
      <rect>
        2 1 5 6</rect></_>
    <_>
      <rect>
        2 4 7 5</rect></_>
    <_>
      <rect>
        2 8 5 5</rect></_>
    <_>
      <rect>
        2 11 5 4</rect></_>
    <_>
      <rect>
        3 1 4 6</rect></_>
    <_>
      <rect>
        3 3 6 4</rect></_>
    <_>
      <rect>
        3 4 5 5</rect></_>
    <_>
      <rect>
        3 4 6 3</rect></_>
    <_>
      <rect>
        3 6 7 4</rect></_>
    <_>
      <rect>
        3 8 7 5</rect></_>
    <_>
      <rect>
        3 10 3 3</rect></_>
    <_>
      <rect>
        3 12 6 4</rect></_>
    <_>
      <rect>
        3 15 4 3</rect></_>
    <_>
      <rect>
        3 15 6 3</rect></_>
    <_>
      <rect>
        3 18 2 2</rect></_>
    <_>
      <rect>
        4 2 1 1</rect></_>
    <_>
      <rect>
        4 3 5 6</rect></_>
    <_>
      <rect>
        4 8 5 4</rect></_>
    <_>
      <rect>
        4 11 2 1</rect></_>
    <_>
      <rect>
        5 1 1 1</rect></_>
    <_>
      <rect>
        5 1 6 4</rect></_>
    <_>
      <rect>
        5 3 3 2</rect></_>
    <_>
      <rect>
        5 3 5 3</rect></_>
    <_>
      <rect>
        5 4 5 5</rect></_>
    <_>
      <rect>
        5 14 4 3</rect></_>
    <_>
      <rect>
        6 0 2 1</rect></_>
    <_>
      <rect>
        6 0 4 5</rect></_>
    <_>
      <rect>
        6 1 5 7</rect></_>
    <_>
      <rect>
        6 3 2 1</rect></_>
    <_>
      <rect>
        6 5 4 4</rect></_>
    <_>
      <rect>
        6 8 6 4</rect></_>
    <_>
      <rect>
        6 9 5 5</rect></_>
    <_>
      <rect>
        6 10 4 3</rect></_>
    <_>
      <rect>
        6 13 3 2</rect></_>
    <_>
      <rect>
        6 13 4 2</rect></_>
    <_>
      <rect>
        6 15 4 3</rect></_>
    <_>
      <rect>
        7 0 5 7</rect></_>
    <_>
      <rect>
        7 2 5 7</rect></_>
    <_>
      <rect>
        7 6 2 2</rect></_>
    <_>
      <rect>
        7 6 5 4</rect></_>
    <_>
      <rect>
        7 6 5 6</rect></_>
    <_>
      <rect>
        7 7 3 2</rect></_>
    <_>
      <rect>
        7 9 2 2</rect></_>
    <_>
      <rect>
        7 14 2 2</rect></_>
    <_>
      <rect>
        7 17 2 1</rect></_>
    <_>
      <rect>
        7 21 2 1</rect></_>
    <_>
      <rect>
        8 0 2 1</rect></_>
    <_>
      <rect>
        8 0 4 5</rect></_>
    <_>
      <rect>
        8 0 5 1</rect></_>
    <_>
      <rect>
        8 0 5 5</rect></_>
    <_>
      <rect>
        8 5 2 2</rect></_>
    <_>
      <rect>
        8 5 2 4</rect></_>
    <_>
      <rect>
        8 13 2 1</rect></_>
    <_>
      <rect>
        9 0 5 5</rect></_>
    <_>
      <rect>
        9 1 4 2</rect></_>
    <_>
      <rect>
        9 4 5 4</rect></_>
    <_>
      <rect>
        9 5 2 2</rect></_>
    <_>
      <rect>
        9 6 2 2</rect></_>
    <_>
      <rect>
        9 10 2 1</rect></_>
    <_>
      <rect>
        9 12 5 4</rect></_>
    <_>
      <rect>
        9 14 3 3</rect></_>
    <_>
      <rect>
        10 0 4 1</rect></_>
    <_>
      <rect>
        10 2 2 2</rect></_>
    <_>
      <rect>
        10 10 4 3</rect></_>
    <_>
      <rect>
        10 12 3 1</rect></_>
    <_>
      <rect>
        11 0 2 1</rect></_>
    <_>
      <rect>
        11 0 3 1</rect></_>
    <_>
      <rect>
        11 1 4 7</rect></_>
    <_>
      <rect>
        11 3 2 1</rect></_>
    <_>
      <rect>
        11 5 2 2</rect></_>
    <_>
      <rect>
        11 8 2 2</rect></_>
    <_>
      <rect>
        11 10 4 4</rect></_>
    <_>
      <rect>
        11 14 3 2</rect></_>
    <_>
      <rect>
        11 21 2 1</rect></_>
    <_>
      <rect>
        12 0 2 1</rect></_>
    <_>
      <rect>
        12 1 4 3</rect></_>
    <_>
      <rect>
        13 6 2 2</rect></_>
    <_>
      <rect>
        13 8 2 2</rect></_>
    <_>
      <rect>
        14 4 3 5</rect></_>
    <_>
      <rect>
        14 18 2 2</rect></_>
    <_>
      <rect>
        14 18 3 2</rect></_>
    <_>
      <rect>
        15 0 3 2</rect></_>
    <_>
      <rect>
        15 7 2 2</rect></_>
    <_>
      <rect>
        16 1 1 1</rect></_>
    <_>
      <rect>
        16 17 2 2</rect></_>
    <_>
      <rect>
        17 1 2 2</rect></_>
    <_>
      <rect>
        17 3 2 1</rect></_>
    <_>
      <rect>
        18 2 2 3</rect></_>
    <_>
      <rect>
        18 8 2 2</rect></_>
    <_>
      <rect>
        18 16 2 2</rect></_>
    <_>
      <rect>
        20 3 1 2</rect></_>
    <_>
      <rect>
        20 5 1 1</rect></_>
    <_>
      <rect>
        20 16 1 1</rect></_>
    <_>
      <rect>
        21 4 1 2</rect></_>
    <_>
      <rect>
        21 7 1 1</rect></_>
    <_>
      <rect>
        21 14 1 1</rect></_></features></cascade>
</opencv_storage>
